digraph Tree {
node [shape=box, style="filled, rounded", color="black", fontname="helvetica"] ;
edge [fontname="helvetica"] ;
0 [label=<education_level_High school diploma/GED &le; 0.5<br/>gini = 0.5<br/>samples = 63377<br/>value = [50218, 50068]<br/>class = high>, fillcolor="#fffffe"] ;
1 [label=<age &le; 50.5<br/>gini = 0.499<br/>samples = 57392<br/>value = [47107, 43812]<br/>class = high>, fillcolor="#fdf6f1"] ;
0 -> 1 [labeldistance=2.5, labelangle=45, headlabel="True"] ;
3 [label=<education_level_Some high school &le; 0.5<br/>gini = 0.302<br/>samples = 31477<br/>value = [40690, 9252]<br/>class = high>, fillcolor="#eb9e66"] ;
1 -> 3 ;
7 [label=<education_level_Other &le; 0.5<br/>gini = 0.291<br/>samples = 30815<br/>value = [40250, 8622]<br/>class = high>, fillcolor="#eb9c63"] ;
3 -> 7 ;
9 [label=<gender_f &le; 0.5<br/>gini = 0.281<br/>samples = 30144<br/>value = [39727, 8087]<br/>class = high>, fillcolor="#ea9b61"] ;
7 -> 9 ;
13 [label=<age &le; 40.5<br/>gini = 0.226<br/>samples = 15215<br/>value = [21028, 3140]<br/>class = high>, fillcolor="#e99457"] ;
9 -> 13 ;
15 [label=<education_level_Some college &le; 0.5<br/>gini = 0.168<br/>samples = 11983<br/>value = [17243, 1755]<br/>class = high>, fillcolor="#e88e4d"] ;
13 -> 15 ;
23 [label=<education_level_Associate's degree &le; 0.5<br/>gini = 0.131<br/>samples = 8357<br/>value = [12345, 939]<br/>class = high>, fillcolor="#e78b48"] ;
15 -> 23 ;
31 [label=<gini = 0.123<br/>samples = 7862<br/>value = [11690, 820]<br/>class = high>, fillcolor="#e78a47"] ;
23 -> 31 ;
32 [label=<gini = 0.26<br/>samples = 495<br/>value = [655, 119]<br/>class = high>, fillcolor="#ea985d"] ;
23 -> 32 ;
24 [label=<gini = 0.245<br/>samples = 3626<br/>value = [4898, 816]<br/>class = high>, fillcolor="#e9965a"] ;
15 -> 24 ;
16 [label=<gini = 0.392<br/>samples = 3232<br/>value = [3785, 1385]<br/>class = high>, fillcolor="#efaf81"] ;
13 -> 16 ;
14 [label=<education_level_College degree &le; 0.5<br/>gini = 0.331<br/>samples = 14929<br/>value = [18699, 4947]<br/>class = high>, fillcolor="#eca26d"] ;
9 -> 14 ;
17 [label=<education_level_Master's degree &le; 0.5<br/>gini = 0.36<br/>samples = 8793<br/>value = [10662, 3277]<br/>class = high>, fillcolor="#eda876"] ;
14 -> 17 ;
19 [label=<education_level_Some college &le; 0.5<br/>gini = 0.393<br/>samples = 5812<br/>value = [6712, 2468]<br/>class = high>, fillcolor="#efaf82"] ;
17 -> 19 ;
21 [label=<gini = 0.331<br/>samples = 2558<br/>value = [3215, 853]<br/>class = high>, fillcolor="#eca26e"] ;
19 -> 21 ;
22 [label=<gini = 0.432<br/>samples = 3254<br/>value = [3497, 1615]<br/>class = high>, fillcolor="#f1bb94"] ;
19 -> 22 ;
20 [label=<gini = 0.282<br/>samples = 2981<br/>value = [3950, 809]<br/>class = high>, fillcolor="#ea9b62"] ;
17 -> 20 ;
18 [label=<gini = 0.285<br/>samples = 6136<br/>value = [8037, 1670]<br/>class = high>, fillcolor="#ea9b62"] ;
14 -> 18 ;
10 [label=<gini = 0.5<br/>samples = 671<br/>value = [523, 535]<br/>class = low>, fillcolor="#fbfdfe"] ;
7 -> 10 ;
8 [label=<gini = 0.484<br/>samples = 662<br/>value = [440, 630]<br/>class = low>, fillcolor="#c3e1f7"] ;
3 -> 8 ;
4 [label=<age &le; 58.5<br/>gini = 0.264<br/>samples = 25915<br/>value = [6417, 34560]<br/>class = low>, fillcolor="#5eafea"] ;
1 -> 4 ;
5 [label=<country_US &le; 0.5<br/>gini = 0.458<br/>samples = 7897<br/>value = [4442, 8076]<br/>class = low>, fillcolor="#a6d3f3"] ;
4 -> 5 ;
25 [label=<gini = 0.405<br/>samples = 1504<br/>value = [666, 1691]<br/>class = low>, fillcolor="#87c4ef"] ;
5 -> 25 ;
26 [label=<education_level_Master's degree &le; 0.5<br/>gini = 0.467<br/>samples = 6393<br/>value = [3776, 6385]<br/>class = low>, fillcolor="#aed7f4"] ;
5 -> 26 ;
27 [label=<age &le; 53.5<br/>gini = 0.45<br/>samples = 5088<br/>value = [2764, 5323]<br/>class = low>, fillcolor="#a0d0f3"] ;
26 -> 27 ;
29 [label=<gini = 0.488<br/>samples = 1858<br/>value = [1243, 1699]<br/>class = low>, fillcolor="#cae5f8"] ;
27 -> 29 ;
30 [label=<gini = 0.416<br/>samples = 3230<br/>value = [1521, 3624]<br/>class = low>, fillcolor="#8cc6f0"] ;
27 -> 30 ;
28 [label=<gini = 0.5<br/>samples = 1305<br/>value = [1012, 1062]<br/>class = low>, fillcolor="#f6fafe"] ;
26 -> 28 ;
6 [label=<age &le; 62.5<br/>gini = 0.129<br/>samples = 18018<br/>value = [1975, 26484]<br/>class = low>, fillcolor="#48a4e7"] ;
4 -> 6 ;
11 [label=<gini = 0.273<br/>samples = 4288<br/>value = [1115, 5736]<br/>class = low>, fillcolor="#5fb0ea"] ;
6 -> 11 ;
12 [label=<gini = 0.076<br/>samples = 13730<br/>value = [860, 20748]<br/>class = low>, fillcolor="#41a1e6"] ;
6 -> 12 ;
2 [label=<gini = 0.444<br/>samples = 5985<br/>value = [3111, 6256]<br/>class = low>, fillcolor="#9bcef2"] ;
0 -> 2 [labeldistance=2.5, labelangle=-45, headlabel="False"] ;
}
